<?xml version="1.0"?>
<opencv_storage>
<cascade>
  <stageType>BOOST</stageType>
  <featureType>HAAR</featureType>
  <height>32</height>
  <width>32</width>
  <stageParams>
    <boostType>GAB</boostType>
    <minHitRate>9.9500000476837158e-01</minHitRate>
    <maxFalseAlarm>5.0000000000000000e-01</maxFalseAlarm>
    <weightTrimRate>9.4999998807907104e-01</weightTrimRate>
    <maxDepth>1</maxDepth>
    <maxWeakCount>100</maxWeakCount></stageParams>
  <featureParams>
    <maxCatCount>0</maxCatCount>
    <featSize>1</featSize>
    <mode>BASIC</mode></featureParams>
  <stageNum>6</stageNum>
  <stages>
    <!-- stage 0 -->
    <_>
      <maxWeakCount>1</maxWeakCount>
      <stageThreshold>9.0476191043853760e-01</stageThreshold>
      <weakClassifiers>
        <_>
          <internalNodes>
            0 -1 0 2.4570152163505554e-02</internalNodes>
          <leafValues>
            -1. 9.0476191043853760e-01</leafValues></_></weakClassifiers></_>
    <!-- stage 1 -->
    <_>
      <maxWeakCount>2</maxWeakCount>
      <stageThreshold>-6.2362268567085266e-02</stageThreshold>
      <weakClassifiers>
        <_>
          <internalNodes>
            0 -1 1 -7.3217183351516724e-02</internalNodes>
          <leafValues>
            1. -9.8675495386123657e-01</leafValues></_>
        <_>
          <internalNodes>
            0 -1 3 -1.3804722577333450e-02</internalNodes>
          <leafValues>
            9.2439270019531250e-01 -9.9339878559112549e-01</leafValues></_></weakClassifiers></_>
    <!-- stage 2 -->
    <_>
      <maxWeakCount>2</maxWeakCount>
      <stageThreshold>-2.9666706919670105e-01</stageThreshold>
      <weakClassifiers>
        <_>
          <internalNodes>
            0 -1 4 -1.6042272746562958e-01</internalNodes>
          <leafValues>
            9.4736844301223755e-01 -9.8013246059417725e-01</leafValues></_>
        <_>
          <internalNodes>
            0 -1 9 -1.0932324454188347e-02</internalNodes>
          <leafValues>
            6.8346536159515381e-01 -9.9301594495773315e-01</leafValues></_></weakClassifiers></_>
    <!-- stage 3 -->
    <_>
      <maxWeakCount>2</maxWeakCount>
      <stageThreshold>-2.2820752859115601e-01</stageThreshold>
      <weakClassifiers>
        <_>
          <internalNodes>
            0 -1 2 4.6862751245498657e-02</internalNodes>
          <leafValues>
            -9.7324413061141968e-01 7.5609755516052246e-01</leafValues></_>
        <_>
          <internalNodes>
            0 -1 10 1.5460714697837830e-02</internalNodes>
          <leafValues>
            -9.8430508375167847e-01 7.7290529012680054e-01</leafValues></_></weakClassifiers></_>
    <!-- stage 4 -->
    <_>
      <maxWeakCount>2</maxWeakCount>
      <stageThreshold>-3.6811938881874084e-01</stageThreshold>
      <weakClassifiers>
        <_>
          <internalNodes>
            0 -1 8 1.3160282745957375e-02</internalNodes>
          <leafValues>
            -9.8000001907348633e-01 8.5000002384185791e-01</leafValues></_>
        <_>
          <internalNodes>
            0 -1 5 1.0623039677739143e-02</internalNodes>
          <leafValues>
            -9.9245411157608032e-01 6.1188060045242310e-01</leafValues></_></weakClassifiers></_>
    <!-- stage 5 -->
    <_>
      <maxWeakCount>2</maxWeakCount>
      <stageThreshold>-1.4903128147125244e-02</stageThreshold>
      <weakClassifiers>
        <_>
          <internalNodes>
            0 -1 7 5.4779216647148132e-02</internalNodes>
          <leafValues>
            -9.7368419170379639e-01 1.</leafValues></_>
        <_>
          <internalNodes>
            0 -1 6 -5.0303889438509941e-03</internalNodes>
          <leafValues>
            9.5878106355667114e-01 -9.0092045068740845e-01</leafValues></_></weakClassifiers></_></stages>
  <features>
    <_>
      <rects>
        <_>
          0 5 12 12 -1.</_>
        <_>
          0 5 6 6 2.</_>
        <_>
          6 11 6 6 2.</_></rects>
      <tilted>0</tilted></_>
    <_>
      <rects>
        <_>
          0 23 30 5 -1.</_>
        <_>
          10 23 10 5 3.</_></rects>
      <tilted>0</tilted></_>
    <_>
      <rects>
        <_>
          1 8 21 6 -1.</_>
        <_>
          1 11 21 3 2.</_></rects>
      <tilted>0</tilted></_>
    <_>
      <rects>
        <_>
          3 24 12 4 -1.</_>
        <_>
          9 24 6 4 2.</_></rects>
      <tilted>0</tilted></_>
    <_>
      <rects>
        <_>
          4 17 21 15 -1.</_>
        <_>
          4 22 21 5 3.</_></rects>
      <tilted>0</tilted></_>
    <_>
      <rects>
        <_>
          7 1 6 14 -1.</_>
        <_>
          7 1 3 7 2.</_>
        <_>
          10 8 3 7 2.</_></rects>
      <tilted>0</tilted></_>
    <_>
      <rects>
        <_>
          16 13 3 8 -1.</_>
        <_>
          17 13 1 8 3.</_></rects>
      <tilted>0</tilted></_>
    <_>
      <rects>
        <_>
          16 19 16 10 -1.</_>
        <_>
          16 19 8 5 2.</_>
        <_>
          24 24 8 5 2.</_></rects>
      <tilted>0</tilted></_>
    <_>
      <rects>
        <_>
          20 27 12 3 -1.</_>
        <_>
          24 27 4 3 3.</_></rects>
      <tilted>0</tilted></_>
    <_>
      <rects>
        <_>
          23 5 4 18 -1.</_>
        <_>
          23 5 2 9 2.</_>
        <_>
          25 14 2 9 2.</_></rects>
      <tilted>0</tilted></_>
    <_>
      <rects>
        <_>
          25 20 6 9 -1.</_>
        <_>
          28 20 3 9 2.</_></rects>
      <tilted>0</tilted></_></features></cascade>
</opencv_storage>
